digraph Tree {
node [shape=box, style="filled, rounded", color="black", fontname="helvetica"] ;
edge [fontname="helvetica"] ;
0 [label="sepal length (cm) <= 5.45\ngini = 0.66\nsamples = 95\nvalue = [42, 53, 55]\nclass = virginica", fillcolor="#fcfbfe"] ;
1 [label="petal length (cm) <= 2.6\ngini = 0.3\nsamples = 32\nvalue = [40, 9, 0]\nclass = setosa", fillcolor="#eb9d66"] ;
0 -> 1 [labeldistance=2.5, labelangle=45, headlabel="True"] ;
2 [label="gini = 0.0\nsamples = 28\nvalue = [40, 0, 0]\nclass = setosa", fillcolor="#e58139"] ;
1 -> 2 ;
3 [label="gini = 0.0\nsamples = 4\nvalue = [0, 9, 0]\nclass = versicolor", fillcolor="#39e581"] ;
1 -> 3 ;
4 [label="petal length (cm) <= 4.95\ngini = 0.51\nsamples = 63\nvalue = [2, 44, 55]\nclass = virginica", fillcolor="#e7d9fa"] ;
0 -> 4 [labeldistance=2.5, labelangle=-45, headlabel="False"] ;
5 [label="petal length (cm) <= 2.75\ngini = 0.19\nsamples = 32\nvalue = [2, 43, 3]\nclass = versicolor", fillcolor="#4fe88f"] ;
4 -> 5 ;
6 [label="gini = 0.0\nsamples = 2\nvalue = [2, 0, 0]\nclass = setosa", fillcolor="#e58139"] ;
5 -> 6 ;
7 [label="petal length (cm) <= 4.75\ngini = 0.12\nsamples = 30\nvalue = [0, 43, 3]\nclass = versicolor", fillcolor="#47e78a"] ;
5 -> 7 ;
8 [label="gini = 0.0\nsamples = 25\nvalue = [0, 39, 0]\nclass = versicolor", fillcolor="#39e581"] ;
7 -> 8 ;
9 [label="sepal width (cm) <= 2.65\ngini = 0.49\nsamples = 5\nvalue = [0, 4, 3]\nclass = versicolor", fillcolor="#cef8e0"] ;
7 -> 9 ;
10 [label="gini = 0.0\nsamples = 1\nvalue = [0, 2, 0]\nclass = versicolor", fillcolor="#39e581"] ;
9 -> 10 ;
11 [label="sepal length (cm) <= 5.75\ngini = 0.48\nsamples = 4\nvalue = [0, 2, 3]\nclass = virginica", fillcolor="#d5bdf6"] ;
9 -> 11 ;
12 [label="gini = 0.0\nsamples = 1\nvalue = [0, 0, 2]\nclass = virginica", fillcolor="#8139e5"] ;
11 -> 12 ;
13 [label="sepal width (cm) <= 3.05\ngini = 0.44\nsamples = 3\nvalue = [0, 2, 1]\nclass = versicolor", fillcolor="#9cf2c0"] ;
11 -> 13 ;
14 [label="gini = 0.0\nsamples = 1\nvalue = [0, 0, 1]\nclass = virginica", fillcolor="#8139e5"] ;
13 -> 14 ;
15 [label="gini = 0.0\nsamples = 2\nvalue = [0, 2, 0]\nclass = versicolor", fillcolor="#39e581"] ;
13 -> 15 ;
16 [label="sepal length (cm) <= 6.05\ngini = 0.04\nsamples = 31\nvalue = [0, 1, 52]\nclass = virginica", fillcolor="#833de6"] ;
4 -> 16 ;
17 [label="sepal width (cm) <= 2.6\ngini = 0.28\nsamples = 4\nvalue = [0, 1, 5]\nclass = virginica", fillcolor="#9a61ea"] ;
16 -> 17 ;
18 [label="gini = 0.0\nsamples = 1\nvalue = [0, 0, 2]\nclass = virginica", fillcolor="#8139e5"] ;
17 -> 18 ;
19 [label="sepal length (cm) <= 5.9\ngini = 0.38\nsamples = 3\nvalue = [0, 1, 3]\nclass = virginica", fillcolor="#ab7bee"] ;
17 -> 19 ;
20 [label="gini = 0.0\nsamples = 2\nvalue = [0, 0, 3]\nclass = virginica", fillcolor="#8139e5"] ;
19 -> 20 ;
21 [label="gini = 0.0\nsamples = 1\nvalue = [0, 1, 0]\nclass = versicolor", fillcolor="#39e581"] ;
19 -> 21 ;
22 [label="gini = 0.0\nsamples = 27\nvalue = [0, 0, 47]\nclass = virginica", fillcolor="#8139e5"] ;
16 -> 22 ;
}