digraph Tree {
node [shape=box, style="filled, rounded", color="black", fontname="helvetica"] ;
edge [fontname="helvetica"] ;
0 [label="petal width (cm) <= 0.7\ngini = 0.67\nsamples = 96\nvalue = [51, 50, 49]\nclass = setosa", fillcolor="#fffefd"] ;
1 [label="gini = 0.0\nsamples = 31\nvalue = [51, 0, 0]\nclass = setosa", fillcolor="#e58139"] ;
0 -> 1 [labeldistance=2.5, labelangle=45, headlabel="True"] ;
2 [label="petal length (cm) <= 4.75\ngini = 0.5\nsamples = 65\nvalue = [0, 50, 49]\nclass = versicolor", fillcolor="#fbfefc"] ;
0 -> 2 [labeldistance=2.5, labelangle=-45, headlabel="False"] ;
3 [label="petal width (cm) <= 1.65\ngini = 0.04\nsamples = 29\nvalue = [0, 45, 1]\nclass = versicolor", fillcolor="#3de684"] ;
2 -> 3 ;
4 [label="gini = 0.0\nsamples = 28\nvalue = [0, 45, 0]\nclass = versicolor", fillcolor="#39e581"] ;
3 -> 4 ;
5 [label="gini = 0.0\nsamples = 1\nvalue = [0, 0, 1]\nclass = virginica", fillcolor="#8139e5"] ;
3 -> 5 ;
6 [label="petal length (cm) <= 5.15\ngini = 0.17\nsamples = 36\nvalue = [0, 5, 48]\nclass = virginica", fillcolor="#8e4ee8"] ;
2 -> 6 ;
7 [label="petal width (cm) <= 1.75\ngini = 0.38\nsamples = 15\nvalue = [0, 5, 15]\nclass = virginica", fillcolor="#ab7bee"] ;
6 -> 7 ;
8 [label="sepal width (cm) <= 2.9\ngini = 0.47\nsamples = 6\nvalue = [0, 5, 3]\nclass = versicolor", fillcolor="#b0f5cd"] ;
7 -> 8 ;
9 [label="petal width (cm) <= 1.55\ngini = 0.48\nsamples = 4\nvalue = [0, 2, 3]\nclass = virginica", fillcolor="#d5bdf6"] ;
8 -> 9 ;
10 [label="sepal length (cm) <= 6.15\ngini = 0.38\nsamples = 3\nvalue = [0, 1, 3]\nclass = virginica", fillcolor="#ab7bee"] ;
9 -> 10 ;
11 [label="gini = 0.0\nsamples = 1\nvalue = [0, 0, 1]\nclass = virginica", fillcolor="#8139e5"] ;
10 -> 11 ;
12 [label="petal length (cm) <= 5.0\ngini = 0.44\nsamples = 2\nvalue = [0, 1, 2]\nclass = virginica", fillcolor="#c09cf2"] ;
10 -> 12 ;
13 [label="gini = 0.0\nsamples = 1\nvalue = [0, 1, 0]\nclass = versicolor", fillcolor="#39e581"] ;
12 -> 13 ;
14 [label="gini = 0.0\nsamples = 1\nvalue = [0, 0, 2]\nclass = virginica", fillcolor="#8139e5"] ;
12 -> 14 ;
15 [label="gini = 0.0\nsamples = 1\nvalue = [0, 1, 0]\nclass = versicolor", fillcolor="#39e581"] ;
9 -> 15 ;
16 [label="gini = 0.0\nsamples = 2\nvalue = [0, 3, 0]\nclass = versicolor", fillcolor="#39e581"] ;
8 -> 16 ;
17 [label="gini = 0.0\nsamples = 9\nvalue = [0, 0, 12]\nclass = virginica", fillcolor="#8139e5"] ;
7 -> 17 ;
18 [label="gini = 0.0\nsamples = 21\nvalue = [0, 0, 33]\nclass = virginica", fillcolor="#8139e5"] ;
6 -> 18 ;
}